<?xml version="1.0"?>
<opencv_storage>
<opencv_ml_svm>
  <format>3</format>
  <svmType>C_SVC</svmType>
  <kernel>
    <type>RBF</type>
    <gamma>5.0624999999999998e-01</gamma></kernel>
  <C>1.2500000000000000e+01</C>
  <term_criteria><epsilon>1.1920928955078125e-07</epsilon>
    <iterations>1000</iterations></term_criteria>
  <var_count>128</var_count>
  <class_count>2</class_count>
  <class_labels type_id="opencv-matrix">
    <rows>2</rows>
    <cols>1</cols>
    <dt>i</dt>
    <data>
      0 1</data></class_labels>
  <sv_total>32</sv_total>
  <support_vectors>
    <_>
      -1.60302803e-01 1.35341227e-01 4.96931672e-02 -2.55143419e-02
      -7.98885375e-02 3.96426069e-03 5.40698878e-03 -1.72807127e-01
      1.89879447e-01 -7.73376226e-02 2.10353792e-01 -1.52762709e-02
      -2.22304404e-01 -2.36047357e-02 -5.23963608e-02 1.40213266e-01
      -2.20836610e-01 -1.91017225e-01 3.81290168e-03 -2.38758549e-02
      1.43073291e-01 -1.16171027e-02 4.79519404e-02 9.96055305e-02
      -1.91047281e-01 -3.69333357e-01 -9.07726064e-02 -8.45979899e-02
      4.73844633e-02 -3.01208626e-02 6.33823592e-03 4.75382768e-02
      -2.54960984e-01 -2.22919248e-02 -3.70000117e-02 8.55273753e-02
      -2.53098900e-03 -6.07593730e-02 2.01037198e-01 -4.95353434e-03
      -2.66803741e-01 2.79313102e-02 9.38663632e-02 2.56323725e-01
      2.38680080e-01 2.88840327e-02 2.73639467e-02 -1.51685387e-01
      1.12314947e-01 -2.38511607e-01 8.80436972e-02 1.62996113e-01
      5.21978438e-02 8.07678849e-02 4.16664444e-02 -1.85135096e-01
      -1.66169852e-02 9.11203101e-02 -1.73031703e-01 3.90292294e-02
      4.31043804e-02 -1.28002129e-02 9.93712321e-02 -8.00403059e-02
      1.95068941e-01 8.73468295e-02 -7.74982795e-02 -1.59047306e-01
      1.35027990e-01 -2.01167464e-01 -8.45781267e-02 1.19142294e-01
      -1.42988682e-01 -2.30785310e-01 -3.71831685e-01 6.17292710e-02
      4.58584249e-01 1.72095552e-01 -1.42935723e-01 6.54008612e-02
      -5.67033440e-02 -4.41182554e-02 1.43413678e-01 1.58581778e-01
      4.59311903e-03 -8.67174752e-03 -1.27579302e-01 1.89488456e-02
      2.63852865e-01 -6.41980767e-03 -8.87460038e-02 2.47977689e-01
      1.28005221e-02 3.24151590e-02 3.48088071e-02 1.23802930e-01
      -1.48083016e-01 5.57212047e-02 -2.05665529e-01 -4.97755334e-02
      -9.06822458e-02 7.40548894e-02 -1.71185136e-02 1.49286464e-01
      -1.41468674e-01 1.14475936e-01 -4.82839392e-03 -4.00097258e-02
      -8.44029859e-02 3.07434262e-03 -1.11080527e-01 -6.72021508e-02
      8.24197158e-02 -2.54809201e-01 1.87065810e-01 1.60974622e-01
      1.73659064e-02 1.69726700e-01 8.85808393e-02 8.09730813e-02
      9.05887131e-03 -3.63925286e-03 -1.53288037e-01 5.04574366e-03
      1.22913644e-01 -3.58849466e-02 9.05927271e-02 2.26915013e-02</_>
    <_>
      -9.18442383e-02 1.31391406e-01 -8.11652653e-03 -1.00536592e-01
      -8.13942477e-02 -1.46002397e-02 -7.74108768e-02 -1.20374411e-01
      1.53391153e-01 -1.29408866e-01 2.29762316e-01 -2.07143445e-02
      -1.78289786e-01 -9.60505679e-02 -4.24456075e-02 1.31367058e-01
      -1.67138085e-01 -2.04219356e-01 -3.92708853e-02 -3.71343829e-03
      1.18325032e-01 -3.87552753e-02 -1.17661767e-02 5.34663647e-02
      -1.48280784e-01 -3.07824552e-01 -9.55066532e-02 -6.09308109e-02
      3.92161049e-02 -3.72433178e-02 -2.83826850e-02 -2.41820272e-02
      -2.34587327e-01 -4.51141968e-02 4.11061309e-02 1.25173062e-01
      -1.38103571e-02 -3.49581763e-02 1.94194213e-01 -1.91826262e-02
      -2.35699549e-01 6.57978728e-02 1.09094769e-01 2.21755087e-01
      1.67110339e-01 5.65553457e-02 3.01486254e-02 -1.71124622e-01
      1.58629343e-01 -1.19455062e-01 7.39362463e-02 1.79251879e-01
      1.06928661e-01 8.60200077e-02 2.93651484e-02 -1.43780276e-01
      1.93506405e-02 1.44799158e-01 -1.10086612e-01 3.48167755e-02
      7.08591491e-02 1.08473189e-03 -1.89837087e-02 -1.25305414e-01
      2.41629601e-01 3.64295691e-02 -1.46801278e-01 -2.02646688e-01
      1.50273532e-01 -1.31500170e-01 -1.20277293e-01 9.77168456e-02
      -1.61418140e-01 -1.70110956e-01 -3.07245761e-01 4.83203977e-02
      3.99724096e-01 1.33437619e-01 -1.56069502e-01 7.35098571e-02
      -3.37466821e-02 -4.59366143e-02 7.05339909e-02 1.43814147e-01
      -4.43155989e-02 6.97184354e-02 -6.73222169e-02 3.18591371e-02
      2.97513723e-01 -1.06636211e-02 -3.21751535e-02 1.84150219e-01
      2.32101418e-03 1.34554714e-01 -1.10324044e-02 1.68675147e-02
      -9.48046669e-02 1.77215151e-02 -1.99112773e-01 -2.24019252e-02
      -2.98506953e-02 -5.29491343e-04 -3.64009961e-02 1.32166833e-01
      -1.31438643e-01 9.59300473e-02 2.15109885e-02 1.62123069e-02
      -7.35080615e-02 6.77209869e-02 -1.28726587e-01 -6.75092563e-02
      9.82151181e-02 -2.15274855e-01 2.41924390e-01 1.71365201e-01
      1.66393340e-01 6.08486198e-02 2.11231902e-01 2.60961652e-02
      5.73398955e-02 -1.38061931e-02 -2.20835149e-01 -3.31547074e-02
      9.31628123e-02 -6.20968528e-02 1.31883189e-01 1.42872920e-02</_>
    <_>
      -7.61002954e-03 8.04305822e-02 6.96777701e-02 -7.36273080e-02
      -9.19906124e-02 3.20055224e-02 -1.51077628e-01 -3.71238589e-02
      1.00267626e-01 -1.28036365e-03 1.60309970e-01 6.63697869e-02
      -1.92875251e-01 -1.01896655e-02 3.34357470e-03 7.36221075e-02
      -1.87302873e-01 -1.06313206e-01 -7.03258663e-02 -1.59855723e-01
      -1.78999323e-02 5.25106452e-02 5.18728532e-02 1.35601545e-02
      -1.32147059e-01 -2.74847209e-01 -1.26439035e-01 -7.58060440e-02
      1.38232097e-01 -1.21324800e-01 -5.06407581e-03 -3.61870863e-02
      -1.61398724e-01 -3.22258063e-02 2.62526795e-03 -2.78501920e-02
      -7.86660537e-02 -9.69708264e-02 2.70735472e-01 1.24165267e-02
      -1.34189337e-01 6.78806156e-02 6.20786920e-02 2.05270693e-01
      2.16899231e-01 -8.29129294e-03 8.85009468e-02 -5.82900047e-02
      1.12643473e-01 -1.69926107e-01 9.54508707e-02 2.53432542e-01
      1.14979185e-01 8.98123458e-02 6.84137875e-03 -1.40038848e-01
      -2.34169103e-02 1.98499173e-01 -1.28503814e-01 1.40979737e-01
      3.19483690e-02 -1.07143745e-01 -1.72578618e-02 7.52620911e-03
      1.49460420e-01 1.19829498e-01 -7.90222362e-02 -2.82774568e-01
      1.76013082e-01 -1.01284914e-01 -1.07756957e-01 8.40918347e-02
      -1.36973917e-01 -8.89400244e-02 -3.02631646e-01 2.59292796e-02
      3.52645785e-01 1.01179592e-02 -1.69617102e-01 8.07093084e-02
      -1.44394770e-01 -7.74892569e-02 -2.17721444e-02 7.27242753e-02
      -1.29769921e-01 -8.52758065e-02 -9.51969251e-02 3.77427265e-02
      2.05194846e-01 -5.98705560e-03 -3.89910713e-02 1.18292622e-01
      6.04702234e-02 8.36616606e-02 7.74985626e-02 1.84731245e-01
      -1.64103672e-01 -2.21880954e-02 -8.47153440e-02 1.13308243e-03
      2.83535942e-02 -9.19059142e-02 1.29127167e-02 1.53087497e-01
      -1.42397463e-01 2.39255726e-01 1.92708112e-02 -2.83147953e-02
      -1.78466141e-02 6.58132508e-02 -4.00584228e-02 -5.75096384e-02
      1.94264248e-01 -2.49893799e-01 2.12377578e-01 1.85829043e-01
      3.34237777e-02 1.15757294e-01 8.67754743e-02 1.25751853e-01
      -5.29180840e-02 5.13204001e-03 -1.65690586e-01 -7.06552267e-02
      -8.01342055e-02 -2.09615193e-03 -2.69662961e-03 1.20902933e-01</_>
    <_>
      -1.13835759e-01 8.79579484e-02 -1.30111109e-02 -1.50682330e-02
      -9.29130614e-02 8.52044672e-03 -6.73767105e-02 -2.95750163e-02
      1.32855639e-01 -5.75524271e-02 1.52255878e-01 -3.08622029e-02
      -1.94691509e-01 -2.68979054e-02 -8.40350464e-02 1.76877514e-01
      -1.65775046e-01 -1.66789025e-01 -2.10278966e-02 -1.10242106e-02
      8.99191052e-02 7.96068236e-02 -1.47511316e-02 5.54961301e-02
      -1.40020683e-01 -3.27001721e-01 -1.84160527e-02 -9.59194750e-02
      -1.37014166e-02 -9.02540758e-02 -1.41024711e-02 4.33013886e-02
      -1.47616491e-01 2.76289657e-02 5.51878549e-02 4.39189300e-02
      3.31720011e-03 7.73662236e-03 2.25815460e-01 3.97930592e-02
      -2.98755109e-01 6.01233169e-02 2.38242149e-02 2.93869197e-01
      2.08103880e-01 2.66603716e-02 -6.70245104e-03 -1.43255055e-01
      9.98510867e-02 -1.55368477e-01 4.16090488e-02 1.91629127e-01
      6.07550144e-02 4.17500064e-02 -4.09570001e-02 -1.27586707e-01
      -1.62440632e-02 1.08715251e-01 -1.10893764e-01 8.76312051e-03
      6.68232441e-02 -6.18667863e-02 1.73309203e-02 -6.88292533e-02
      1.59169778e-01 -4.77372995e-03 -1.17366433e-01 -2.09874824e-01
      7.48564601e-02 -1.77371502e-01 -1.15019597e-01 9.52628702e-02
      -1.27226964e-01 -2.07346246e-01 -2.83814430e-01 1.87045895e-02
      3.64392728e-01 1.07080884e-01 -1.90672308e-01 8.48672986e-02
      8.60827975e-03 -2.57214140e-02 1.40547022e-01 1.79172099e-01
      -3.54683921e-02 3.61720752e-03 -5.93200512e-02 2.32115202e-03
      2.49097139e-01 -1.72753297e-02 -6.58119470e-02 1.57103136e-01
      -1.02685168e-02 7.66342133e-02 1.46260932e-02 5.37075438e-02
      -5.33173457e-02 7.20867962e-02 -9.30763334e-02 -2.57462915e-02
      3.83526366e-03 2.63412204e-03 7.84802437e-03 1.35497391e-01
      -1.55947968e-01 1.85738027e-01 -1.62062347e-02 4.76684123e-02
      -6.14046212e-03 6.19361103e-02 -6.28024489e-02 -2.34674308e-02
      1.37871966e-01 -1.79117724e-01 2.28352726e-01 1.67080879e-01
      9.48990360e-02 1.05611101e-01 1.43705472e-01 4.20389883e-02
      -8.90946668e-03 2.97467727e-02 -2.57868201e-01 -5.73351188e-03
      1.05292216e-01 -4.91406135e-02 1.36973396e-01 4.73359320e-03</_>
    <_>
      -3.76433805e-02 6.01870492e-02 -9.00420360e-03 -6.02966845e-02
      -4.08117920e-02 -1.08777918e-02 -1.11525908e-01 -2.07832336e-01
      1.57124192e-01 -1.23640224e-01 2.58605391e-01 -8.40544142e-03
      -1.96881488e-01 -1.01472087e-01 -6.30781651e-02 1.74353540e-01
      -2.89613336e-01 -1.14814393e-01 5.85366040e-04 -2.66442150e-02
      7.78950974e-02 8.25211219e-03 6.24582656e-02 8.37498531e-03
      -1.59203619e-01 -3.39382231e-01 -1.21710777e-01 -8.99660736e-02
      -8.62901099e-03 -3.75814252e-02 -2.69632004e-02 2.92727700e-03
      -1.91465005e-01 -3.49012204e-03 2.90049482e-02 6.70747906e-02
      1.33521426e-02 -6.20415881e-02 2.21953824e-01 5.27294092e-02
      -1.68488368e-01 8.45388994e-02 -3.89207676e-02 2.12479800e-01
      1.29087016e-01 1.42829018e-02 5.35929650e-02 -1.49182275e-01
      1.40544504e-01 -1.20716631e-01 5.30025512e-02 1.65952042e-01
      9.75373387e-02 3.12460540e-03 -3.71846855e-02 -9.33323950e-02
      -1.27199003e-02 1.40187502e-01 -1.42173201e-01 8.66699684e-03
      9.67364386e-02 -6.76854625e-02 -2.08584107e-02 -4.43421900e-02
      1.36404917e-01 8.60968679e-02 -9.85522494e-02 -2.14462027e-01
      7.99447745e-02 -1.16306663e-01 -1.20270826e-01 -1.07020428e-02
      -1.41050786e-01 -1.99050054e-01 -3.19548100e-01 -2.30614096e-02
      3.29965442e-01 4.91575226e-02 -2.29247719e-01 4.28824425e-02
      -7.68555626e-02 -1.59636699e-02 1.30007476e-01 1.08334787e-01
      9.96700861e-03 5.65645397e-02 -1.13104530e-01 -2.22918205e-02
      2.31540233e-01 -8.56076106e-02 -4.62682657e-02 2.42307886e-01
      -2.83353664e-02 7.36552104e-02 4.57737930e-02 3.49012427e-02
      -7.40417764e-02 5.86414039e-02 -7.05865398e-02 -4.98736603e-03
      3.86723876e-02 -2.07894351e-02 -1.46043617e-02 8.28036666e-02
      -1.85220674e-01 1.52096987e-01 -2.51511391e-02 -1.25514530e-03
      3.89001779e-02 -3.23326839e-03 -1.24114670e-01 -1.05799727e-01
      1.62925631e-01 -2.61370808e-01 1.79518521e-01 2.23515987e-01
      3.77660207e-02 1.55997664e-01 9.35080126e-02 9.28237289e-02
      -6.07784949e-02 3.74302045e-02 -2.22823232e-01 -6.89458922e-02
      4.18810621e-02 3.55555043e-02 5.88618256e-02 -1.63518311e-03</_>
    <_>
      -1.04805827e-01 1.66951522e-01 1.38418123e-01 -9.19118449e-02
      -1.13372542e-01 2.87710093e-02 -4.04323116e-02 -6.02697842e-02
      1.66509509e-01 -9.90374982e-02 2.18286395e-01 6.25177054e-03
      -2.48575166e-01 8.57315958e-03 -4.76739705e-02 1.09627858e-01
      -2.02076122e-01 -1.66964322e-01 -3.29602323e-02 1.62513591e-02
      9.76414084e-02 3.52297164e-02 7.32092187e-03 2.42163241e-03
      -1.20900698e-01 -2.91449666e-01 -7.95684382e-02 2.09732000e-02
      4.27762866e-02 -6.70894161e-02 -5.32701574e-02 3.85382697e-02
      -2.27399796e-01 -4.14423533e-02 -2.01728661e-03 4.31008004e-02
      -2.04029642e-02 -8.17614198e-02 1.78470582e-01 -1.18840383e-02
      -2.35275909e-01 6.39789701e-02 4.72527891e-02 2.33191222e-01
      1.93925172e-01 8.86318833e-03 -3.30814347e-02 -1.36622488e-01
      1.09663576e-01 -2.40556926e-01 6.29666597e-02 2.49477535e-01
      3.58230695e-02 6.62527084e-02 -6.24744873e-03 -1.72782868e-01
      -1.34023912e-02 1.19114704e-01 -1.09369658e-01 2.64574569e-02
      9.61001217e-02 -3.89094390e-02 1.32998675e-02 -1.36975452e-01
      1.48212910e-01 9.12791789e-02 -1.23902209e-01 -2.42847472e-01
      9.58904177e-02 -8.58087912e-02 -7.36755133e-02 1.08490095e-01
      -1.87407538e-01 -1.59181982e-01 -2.31244415e-01 7.71791488e-02
      3.70510697e-01 9.92184505e-02 -1.52867839e-01 5.15257530e-02
      -8.55720937e-02 -2.61530466e-02 4.49593700e-02 1.16532668e-01
      -6.15468137e-02 1.97519809e-02 -8.97791237e-02 6.63619712e-02
      2.30455056e-01 -1.22885797e-02 -7.14002252e-02 2.20455721e-01
      2.50309482e-02 6.69885576e-02 3.80191952e-02 6.46492317e-02
      -7.89989159e-02 2.89800558e-02 -2.35291868e-01 1.22257285e-02
      -1.22399768e-02 -3.53414603e-02 -6.96251616e-02 1.83314338e-01
      -1.04255810e-01 1.28351733e-01 8.10302794e-03 1.82847083e-02
      -3.15296650e-02 -2.60422919e-02 -1.13625899e-01 -4.32248339e-02
      1.11691743e-01 -2.05018565e-01 2.26782054e-01 1.36122361e-01
      9.14149210e-02 7.53869861e-02 1.58833742e-01 6.61653131e-02
      3.37600037e-02 1.56093156e-02 -1.57954946e-01 -4.25507426e-02
      1.17913231e-01 -4.50822115e-02 8.93245786e-02 4.03242791e-03</_>
    <_>
      -7.21810386e-02 8.51501375e-02 2.08948366e-02 -4.33732718e-02
      -1.71066616e-02 4.67403466e-03 -9.32504460e-02 -1.50759190e-01
      1.04052752e-01 -1.03314660e-01 2.01162428e-01 -2.17702799e-02
      -1.83780402e-01 -1.01139419e-01 -9.79534090e-02 1.39437333e-01
      -2.05030695e-01 -1.75177991e-01 9.87757742e-03 3.21901776e-03
      9.76066142e-02 -4.45949100e-02 2.01745797e-02 3.94135751e-02
      -1.16805546e-01 -3.09049934e-01 -1.42594874e-01 -1.21322006e-01
      3.62907611e-02 -5.88007420e-02 -5.38249016e-02 -4.15985063e-02
      -2.21122116e-01 -9.77423042e-03 -1.97690167e-02 6.07002452e-02
      8.31406843e-03 -1.98455509e-02 1.99964345e-01 2.50847638e-02
      -1.84696347e-01 1.30411714e-01 1.29976496e-02 2.52569139e-01
      2.09288150e-01 3.98775376e-02 1.42297223e-02 -1.71409518e-01
      8.08342919e-02 -1.50556490e-01 7.42472857e-02 1.93798572e-01
      1.30798981e-01 1.06892899e-01 -2.86887214e-02 -1.09618746e-01
      1.74646880e-02 6.55372813e-02 -1.15226194e-01 6.25286177e-02
      4.62954752e-02 1.75301358e-02 2.92803962e-02 -5.80368415e-02
      1.86512649e-01 2.25102771e-02 -1.56906575e-01 -1.60126299e-01
      8.92769843e-02 -1.48244157e-01 -9.06057954e-02 5.05863354e-02
      -1.39661118e-01 -2.13684410e-01 -2.98402309e-01 7.31229410e-02
      4.15767431e-01 1.49058461e-01 -2.45253727e-01 7.38864318e-02
      -1.19623892e-01 -6.45032823e-02 1.13506623e-01 1.23347893e-01
      -1.15647241e-02 3.58080044e-02 -7.15864077e-02 1.51440743e-02
      2.27389738e-01 -5.79413846e-02 -5.23465239e-02 1.91778570e-01
      -1.60413254e-02 1.24673069e-01 1.92259606e-02 9.60038081e-02
      -5.16347252e-02 6.13795370e-02 -1.48684964e-01 -4.47999593e-03
      -3.14600989e-02 -2.06927992e-02 -3.89839970e-02 8.34624395e-02
      -1.41808361e-01 1.69636011e-01 5.05483449e-02 -2.66373102e-02
      -3.62476148e-02 5.49298301e-02 -1.52980313e-01 -3.50325331e-02
      1.51940182e-01 -2.76251256e-01 2.59112954e-01 2.31029540e-01
      9.05510038e-02 1.10213488e-01 1.72932640e-01 7.76081681e-02
      -9.78477113e-03 -2.37178095e-02 -1.85332999e-01 -4.80455458e-02
      7.91573972e-02 -1.39005110e-03 9.76798013e-02 2.00712197e-02</_>
    <_>
      -5.17240576e-02 1.42960817e-01 1.11922789e-02 -4.45992127e-02
      -4.69697192e-02 4.98268902e-02 -4.34314460e-02 -5.56080639e-02
      1.58266842e-01 -3.84881198e-02 2.55174100e-01 -2.31410265e-02
      -1.55715302e-01 -5.13478555e-02 -2.93557271e-02 1.84766293e-01
      -1.86402157e-01 -7.67908990e-02 -2.81946082e-02 -1.68928504e-03
      9.47813466e-02 7.73307160e-02 3.11597083e-02 7.11181015e-02
      -1.52221501e-01 -3.52730632e-01 -7.51226693e-02 -7.47261867e-02
      -1.25692729e-02 -8.19260404e-02 -1.09210331e-02 5.53266034e-02
      -1.90715298e-01 1.23281423e-02 7.32107181e-03 -9.90714133e-03
      -3.94167677e-02 3.07734106e-02 1.70097589e-01 1.01845458e-01
      -2.25728229e-01 1.17120214e-01 4.73251268e-02 2.89491862e-01
      1.86653689e-01 8.90555084e-02 3.67507078e-02 -1.62163466e-01
      2.29755323e-02 -2.06565559e-01 4.43872437e-02 1.58807829e-01
      3.00264526e-02 2.32734382e-02 -3.06689981e-02 -1.07420437e-01
      -4.19841483e-02 7.29708448e-02 -1.59414679e-01 9.74949151e-02
      6.97665289e-02 -4.66029085e-02 -2.49948464e-02 -5.06783389e-02
      1.82611793e-01 1.03133902e-01 -1.20382994e-01 -1.95784658e-01
      4.57390249e-02 -1.61227047e-01 -1.30208671e-01 9.21390802e-02
      -9.84121338e-02 -2.55311519e-01 -3.25455308e-01 4.34015505e-02
      3.83935779e-01 1.12925448e-01 -2.28460982e-01 4.71841618e-02
      -3.04165836e-02 -2.48814244e-02 1.78327367e-01 1.79183781e-01
      -1.74841490e-02 -4.29689474e-02 -8.63000005e-02 2.95151155e-02
      2.43447810e-01 -6.17854744e-02 -3.96768674e-02 2.57049650e-01
      -8.78294930e-04 7.77777955e-02 -4.14304025e-02 8.85357782e-02
      -8.14437866e-02 7.85986558e-02 -1.33927241e-01 -4.31801975e-02
      -1.49528673e-02 5.23668863e-02 -1.95725467e-02 1.20042488e-01
      -1.80497050e-01 2.00776756e-01 7.35560944e-03 -4.33011577e-02
      1.27080977e-02 4.10187915e-02 -8.31021219e-02 -4.72944342e-02
      1.23584680e-01 -2.15627849e-01 1.99348867e-01 1.95185214e-01
      5.95204569e-02 1.13041267e-01 1.45961151e-01 8.60692784e-02
      4.33641486e-03 1.38048083e-03 -2.26619452e-01 1.18991574e-02
      9.25654918e-02 -5.86192608e-02 7.74105936e-02 -2.48357374e-02</_>
    <_>
      -1.53854206e-01 1.02352418e-01 1.34701133e-01 -1.03398211e-01
      -5.47679067e-02 -6.94229035e-03 -3.57982144e-02 -1.94470033e-01
      2.43090749e-01 -9.62126702e-02 2.90511250e-01 -1.34569585e-01
      -2.09085971e-01 -1.05187157e-03 -5.64245284e-02 2.24724278e-01
      -2.80598670e-01 -1.12873800e-01 4.40002419e-02 -6.87729567e-03
      2.33747456e-02 1.09920539e-02 5.55638298e-02 4.86621782e-02
      -1.35055646e-01 -3.89910817e-01 -8.64151865e-02 -9.29958671e-02
      1.77288651e-02 -6.79008961e-02 -3.60313840e-02 9.17349234e-02
      -2.16093212e-01 -1.91509649e-02 2.05445644e-02 1.10831350e-01
      -7.55096972e-02 -1.03247546e-01 2.10715264e-01 2.09977943e-02
      -2.41165385e-01 -7.16513544e-02 9.77960899e-02 2.43667915e-01
      2.22274423e-01 -4.32876237e-02 -1.81367267e-02 -1.50229901e-01
      6.63952976e-02 -1.98098749e-01 -2.76762061e-02 1.59737676e-01
      7.14460015e-03 4.29655500e-02 3.08343861e-02 -1.56709909e-01
      -9.72137414e-03 6.51229322e-02 -1.26943618e-01 4.53140680e-03
      1.64176345e-01 -8.16338658e-02 -2.48540863e-02 -4.05338146e-02
      2.16290638e-01 1.25759855e-01 -1.15777239e-01 -1.69880301e-01
      1.20311037e-01 -7.35857636e-02 -5.27989902e-02 4.59793285e-02
      -1.65722445e-01 -2.09705353e-01 -2.89736807e-01 -7.87163153e-02
      3.61340940e-01 -1.35175232e-03 -1.55460581e-01 7.09947646e-02
      -6.92316890e-02 -1.95110328e-02 1.36288226e-01 2.01049432e-01
      2.88252626e-02 3.68438140e-02 -6.24495931e-02 2.41279751e-02
      1.62636817e-01 -6.97850958e-02 1.09895552e-02 2.03287169e-01
      -9.76586565e-02 2.04131305e-02 1.27913877e-02 6.84674084e-02
      -1.09083012e-01 7.78335407e-02 -1.93092987e-01 -5.58268279e-02
      -6.57525565e-03 3.02230120e-02 8.66708066e-03 1.39022052e-01
      -2.21315548e-01 1.11567892e-01 6.73909187e-02 -5.18761948e-03
      5.16832247e-02 -6.53300732e-02 -4.43145186e-02 -4.02205400e-02
      1.47059783e-01 -2.72033900e-01 1.68202057e-01 1.62024215e-01
      -1.92699619e-02 1.39078885e-01 8.88045132e-02 7.38366544e-02
      -7.72841275e-04 2.91185006e-02 -1.87257230e-01 4.61921282e-02
      2.11149920e-03 -4.22356557e-03 1.80074628e-02 -1.61768477e-02</_>
    <_>
      -1.37060568e-01 1.04070075e-01 5.85679105e-03 -4.05781828e-02
      -5.33527657e-02 3.61703038e-02 -9.66740772e-02 -1.16398141e-01
      1.74184665e-01 -9.04549882e-02 2.03965649e-01 6.84222486e-03
      -1.62663341e-01 -5.17819636e-02 -6.09542578e-02 1.50387868e-01
      -2.49726698e-01 -1.57235667e-01 1.15441959e-02 -1.86769571e-03
      1.28416672e-01 4.16486524e-04 2.87254341e-02 4.54303399e-02
      -1.79191411e-01 -3.64071608e-01 -1.19729072e-01 -1.05082639e-01
      4.51280475e-02 -2.17071287e-02 -6.53325394e-02 -3.56532037e-02
      -1.99191287e-01 -2.35209651e-02 2.90896967e-02 4.97045927e-02
      2.16797963e-02 -9.41631943e-03 1.89293683e-01 -1.09650306e-02
      -2.25013345e-01 1.18187882e-01 4.08937931e-02 2.32367098e-01
      1.99569494e-01 4.66601737e-02 2.00018976e-02 -1.38514593e-01
      1.17272936e-01 -1.67770371e-01 9.45046842e-02 1.80758834e-01
      7.78726041e-02 5.46903424e-02 -2.62538791e-02 -1.11470915e-01
      -5.29777110e-02 1.32420957e-01 -1.39433339e-01 8.15682784e-02
      7.74817914e-02 -2.37654112e-02 8.10875930e-03 -5.63857891e-02
      1.11886114e-01 9.91327688e-02 -1.24943063e-01 -2.27534756e-01
      1.00601248e-01 -1.52648598e-01 -5.51427267e-02 3.50974277e-02
      -1.68603912e-01 -2.42179096e-01 -3.05585146e-01 6.50091916e-02
      4.08339530e-01 1.15183555e-01 -1.62335858e-01 6.02719635e-02
      -2.24730521e-02 -1.83126088e-02 1.07020251e-01 1.25559911e-01
      -3.03509068e-02 1.46182068e-03 -5.90678826e-02 5.22163436e-02
      2.44367391e-01 -1.89589094e-02 -5.08573875e-02 2.14067161e-01
      -1.79160032e-02 9.81867984e-02 3.08406614e-02 1.26469731e-01
      -6.14100248e-02 3.81314680e-02 -1.58546180e-01 3.31276506e-02
      -4.34565097e-02 5.90516999e-03 -4.66539571e-03 1.20490991e-01
      -1.18178062e-01 1.26931429e-01 -8.10558349e-03 2.01816671e-03
      -3.89154144e-02 7.25987256e-02 -1.31914511e-01 -7.72745609e-02
      1.25715151e-01 -1.94403574e-01 2.23860711e-01 2.16037050e-01
      9.67449024e-02 1.30325109e-01 1.27119258e-01 4.81959432e-02
      2.98210345e-02 3.61582339e-02 -2.08934486e-01 -2.05449555e-02
      7.41649419e-02 -2.78158356e-02 7.63076469e-02 1.41947977e-02</_>
    <_>
      -1.12454616e-01 1.31274939e-01 3.93101163e-02 1.68064926e-02
      -8.54371488e-02 3.23435403e-02 -5.26066795e-02 -1.19322374e-01
      1.94048226e-01 -1.19163223e-01 2.22445711e-01 -7.09200576e-02
      -2.21627548e-01 -6.96576387e-02 -9.26238522e-02 1.56735778e-01
      -2.32142344e-01 -1.62221238e-01 -1.61394980e-02 -9.65184998e-03
      6.90340549e-02 1.55967921e-02 5.92200235e-02 -8.39951448e-03
      -9.03510749e-02 -4.41015899e-01 -1.47451177e-01 -6.11898489e-02
      9.07003134e-02 -3.10265739e-02 -4.89317104e-02 -1.96377821e-02
      -1.80174440e-01 -5.85486740e-02 -1.10525917e-03 3.15971971e-02
      -3.21119949e-02 -5.05033359e-02 2.37235457e-01 -2.06525531e-02
      -2.09934622e-01 1.77011490e-02 2.25263555e-02 2.83610523e-01
      1.70677617e-01 6.23505786e-02 -1.37398392e-02 -1.60325348e-01
      1.31882608e-01 -1.38104394e-01 9.90071893e-02 1.71545222e-01
      1.17619783e-01 7.16569647e-02 1.83344819e-02 -8.84688869e-02
      -6.59892336e-04 1.51736304e-01 -1.99063346e-01 -3.65647231e-03
      7.07738996e-02 -6.37608320e-02 5.68999499e-02 -6.13154694e-02
      2.32908800e-01 1.00104116e-01 -7.88508654e-02 -2.29694530e-01
      1.36545449e-01 -1.55807972e-01 -2.85118148e-02 5.36427759e-02
      -1.01492174e-01 -1.76727965e-01 -3.46461654e-01 3.82421389e-02
      4.60325807e-01 9.89342481e-02 -1.43651530e-01 3.98536772e-02
      -3.16998288e-02 -7.67253712e-02 1.58263236e-01 1.58166677e-01
      -9.81472209e-02 9.30818729e-03 -1.29153252e-01 -4.54292819e-03
      1.93402752e-01 -4.02251184e-02 -1.30341426e-01 1.51934043e-01
      -7.06689432e-03 9.60167646e-02 9.19810534e-02 6.77506477e-02
      -1.24931112e-01 5.88835068e-02 -1.54856667e-01 1.02093471e-02
      -2.33992040e-02 7.63525628e-03 -1.95520949e-02 8.66061673e-02
      -5.18363677e-02 1.47480890e-01 5.76854870e-03 -1.91836990e-03
      -4.16408964e-02 -3.59214991e-02 -1.18934624e-01 -5.98234311e-02
      1.28456414e-01 -2.87616283e-01 1.80693701e-01 8.47216919e-02
      4.05420400e-02 2.15225101e-01 1.09840222e-01 9.65570211e-02
      -3.98700163e-02 4.92231920e-05 -1.89211726e-01 -2.11738665e-02
      1.06916204e-01 -6.64315838e-03 1.67131141e-01 2.89074145e-02</_>
    <_>
      -9.86919031e-02 1.08831599e-01 6.25195205e-02 -2.26456970e-02
      -8.48088935e-02 6.98571047e-03 -8.07455257e-02 -9.46116149e-02
      1.46159068e-01 -1.12126432e-01 2.20066652e-01 -7.19002038e-02
      -1.89053684e-01 -5.16572520e-02 -8.92563090e-02 2.24197641e-01
      -1.45915195e-01 -1.40359670e-01 -5.75435013e-02 -3.25791240e-02
      5.29828742e-02 4.54157405e-02 -9.37532727e-03 5.74202463e-02
      -1.05351985e-01 -3.40371013e-01 -6.21794797e-02 -1.20376214e-01
      -6.16246834e-02 -9.85697508e-02 -1.54322358e-02 8.87949765e-02
      -1.40665874e-01 -6.77767023e-03 -1.77298635e-02 -1.35157257e-04
      8.44990835e-03 6.86017983e-03 2.06830800e-01 7.63558596e-03
      -1.98520213e-01 1.00346826e-01 6.82349950e-02 2.56883085e-01
      1.89761072e-01 1.73516981e-02 4.91668284e-02 -1.81130469e-01
      1.07397884e-01 -1.64006814e-01 2.34520994e-03 1.41218454e-01
      1.10405967e-01 6.16686009e-02 1.35782007e-02 -1.09773941e-01
      -3.51160169e-02 6.24648482e-02 -7.46768638e-02 4.97693531e-02
      5.46242706e-02 9.91512090e-03 -4.20722812e-02 -9.04945731e-02
      2.54807353e-01 4.58294339e-02 -1.32385403e-01 -1.38448328e-01
      9.36498940e-02 -1.09794766e-01 -1.30380273e-01 4.13923226e-02
      -1.69769347e-01 -1.75276473e-01 -3.03835094e-01 3.53160538e-02
      3.71302694e-01 5.63495383e-02 -2.56764889e-01 7.44344071e-02
      -4.86983433e-02 -2.28033811e-02 8.82997438e-02 1.55547902e-01
      -4.65144068e-02 -3.24643999e-02 -1.30866654e-02 2.05005370e-02
      2.40395010e-01 -5.40498234e-02 -2.74867062e-02 1.90963000e-01
      2.03792602e-02 8.92808437e-02 -1.74795277e-02 1.91488340e-02
      -3.76514345e-02 3.17918472e-02 -1.35276943e-01 3.92440241e-03
      -1.37280971e-02 4.20309529e-02 -2.37668678e-02 7.89463446e-02
      -1.50382042e-01 1.55852363e-01 8.18283204e-03 2.61234604e-02
      2.67528836e-03 9.07821357e-02 -1.11372076e-01 -3.09937485e-02
      1.60088256e-01 -1.76693663e-01 1.87686741e-01 1.35519728e-01
      5.85175715e-02 8.86662304e-02 1.46583691e-01 1.02711663e-01
      -1.73646919e-02 5.45585826e-02 -1.99165508e-01 -1.78804941e-04
      1.71561763e-01 -4.62606549e-02 7.12996870e-02 1.80308558e-02</_>
    <_>
      -1.13656498e-01 1.49907619e-01 5.75997047e-02 -5.26513532e-03
      -3.89892980e-02 -1.02917198e-02 -6.95947483e-02 -8.53041038e-02
      1.66737363e-01 -6.34528548e-02 1.75357744e-01 -4.30605281e-03
      -2.08006531e-01 2.27328800e-02 -1.08456217e-01 8.94302875e-02
      -1.83421105e-01 -1.23981535e-01 -2.02827528e-03 -1.23083685e-02
      1.47876769e-01 7.01266602e-02 1.95340682e-02 3.84036079e-02
      -1.03230909e-01 -2.80972570e-01 -1.25825256e-01 -1.29663721e-01
      1.26632303e-02 -1.25542626e-01 -1.84146315e-02 -4.84134220e-02
      -1.82567194e-01 -2.66299397e-02 -3.60402241e-02 2.45831683e-02
      2.37536579e-02 1.12669058e-02 1.90671191e-01 1.06872600e-02
      -1.90212861e-01 7.89137464e-03 8.00028592e-02 2.66128272e-01
      1.84470236e-01 5.37622571e-02 -2.45964304e-02 -1.13245428e-01
      5.30657284e-02 -1.80995598e-01 4.33853194e-02 1.87866628e-01
      1.58539787e-01 9.51001346e-02 -9.00535379e-03 -1.57838136e-01
      -1.56974755e-02 4.66656238e-02 -9.60825905e-02 8.77016932e-02
      7.49701336e-02 -4.85884398e-03 -8.12916271e-03 1.74301472e-02
      1.98906600e-01 3.27448696e-02 -1.27366126e-01 -1.45436421e-01
      9.23144296e-02 -1.62860468e-01 -1.13043837e-01 7.09418803e-02
      -1.53584108e-01 -2.03792483e-01 -2.74334759e-01 2.83868499e-02
      4.15075779e-01 7.45337233e-02 -1.83176115e-01 8.15996751e-02
      -1.01833552e-01 -2.89062895e-02 4.93683517e-02 1.10946424e-01
      -8.52865726e-02 7.07405582e-02 -1.01179004e-01 8.49105492e-02
      2.01518118e-01 -5.87096363e-02 -4.60120589e-02 1.55766532e-01
      -1.21982843e-02 1.18574992e-01 2.00788230e-02 9.85524058e-02
      -4.73260134e-02 2.46634763e-02 -1.67889804e-01 -1.66083686e-04
      1.73518397e-02 3.87793500e-03 -4.91665490e-02 1.26132607e-01
      -1.49896234e-01 1.24457784e-01 5.13833277e-02 -5.80695122e-02
      -5.23538962e-02 5.36478199e-02 -1.43785000e-01 -3.49396206e-02
      1.83047131e-01 -1.86810151e-01 2.17215419e-01 1.82084054e-01
      7.99091998e-03 1.07310608e-01 1.16890043e-01 8.12910125e-02
      1.57374553e-02 5.27995918e-03 -1.90001264e-01 -3.75864357e-02
      7.51076639e-02 -2.87970807e-02 6.67408854e-02 -1.18739437e-04</_>
    <_>
      -6.48569539e-02 1.10079780e-01 2.15976667e-02 -4.26824652e-02
      -5.89580983e-02 3.40277068e-02 -4.68841940e-02 -6.84654415e-02
      1.20945923e-01 -7.73354769e-02 3.17173779e-01 -9.76274312e-02
      -2.33017907e-01 -9.52455103e-02 -1.42046988e-01 1.37112364e-01
      -2.47865275e-01 -1.30864009e-01 3.17080989e-02 -3.67179550e-02
      1.21445075e-01 1.06040272e-04 -4.39135060e-02 5.40375113e-02
      -5.74474037e-02 -3.21130782e-01 -4.90298346e-02 -1.24866471e-01
      1.14295736e-01 -1.35409653e-01 -2.04888023e-02 1.12466933e-03
      -1.64353117e-01 -3.65222842e-02 -2.43165530e-02 2.29835268e-02
      -6.72514737e-02 -9.41470265e-02 1.99529812e-01 -2.11477485e-02
      -1.29526660e-01 5.55585362e-02 4.71146777e-02 2.76631325e-01
      1.68561846e-01 5.32659963e-02 -2.18283944e-02 -1.36612982e-01
      1.56027123e-01 -1.92785487e-01 3.50732729e-03 2.06964254e-01
      8.22301209e-02 9.98689607e-02 1.91088840e-02 -1.53057635e-01
      -3.12680490e-02 9.57766995e-02 -1.50631130e-01 2.25788634e-02
      -3.66781931e-03 3.26363295e-02 2.65854821e-02 -1.36668205e-01
      1.36144966e-01 4.00363579e-02 -9.19053331e-02 -2.08794922e-01
      1.30349800e-01 -1.81294903e-01 -1.37206733e-01 8.01588818e-02
      -1.13750264e-01 -1.52133718e-01 -2.67748982e-01 3.45232971e-02
      3.15893561e-01 1.21157259e-01 -1.09574795e-01 6.61858469e-02
      8.75555910e-03 -7.35037327e-02 8.30139220e-02 9.02101994e-02
      -5.47200218e-02 4.12547309e-03 -1.00008816e-01 -3.30850929e-02
      1.47415861e-01 -3.00617442e-02 -5.40159866e-02 1.52239501e-01
      -5.17671630e-02 6.98079467e-02 6.16771281e-02 6.35358691e-02
      -1.32080853e-01 7.91408941e-02 -1.57714710e-01 -3.31276059e-02
      -1.03196064e-02 -3.62350121e-02 -2.38937512e-02 1.03980862e-01
      -9.95378718e-02 1.22302391e-01 -2.71792002e-02 2.51709744e-02
      -4.09192145e-02 -1.80740352e-03 -1.06150679e-01 3.14781107e-02
      1.40303776e-01 -2.33455673e-01 2.19652429e-01 1.41009226e-01
      1.25673816e-01 1.07470535e-01 1.61798298e-01 2.30876654e-02
      -3.96176353e-02 -3.69738862e-02 -2.26115674e-01 -7.97381103e-02
      3.13437916e-02 -1.05595663e-02 3.87811735e-02 -3.53641175e-02</_>
    <_>
      -1.03463180e-01 1.55061230e-01 4.72644866e-02 -9.75771770e-02
      -6.40735552e-02 -1.48594771e-02 -6.81101084e-02 -1.16815425e-01
      1.82552323e-01 -9.66259688e-02 2.60818183e-01 -1.36350421e-03
      -1.57291368e-01 -1.22686312e-01 -2.16482263e-02 1.55776709e-01
      -2.66101688e-01 -1.12902559e-01 2.72718463e-02 -1.84011962e-02
      9.57129300e-02 -4.08068784e-02 1.77694317e-02 7.02157915e-02
      -1.78278446e-01 -3.30226332e-01 -8.99745300e-02 -1.32668197e-01
      2.83409804e-02 -3.49357426e-02 -1.09341286e-01 -3.86128835e-02
      -2.37353057e-01 -1.79457031e-02 -3.27083748e-03 5.70982434e-02
      2.14985944e-03 -2.41713449e-02 1.59082860e-01 7.12190568e-03
      -1.99010596e-01 3.18106823e-02 -9.07890685e-03 2.08165601e-01
      2.16513500e-01 1.13641936e-02 3.01439539e-02 -1.32285148e-01
      1.25177220e-01 -1.43252164e-01 8.10299814e-02 1.82909548e-01
      9.85937119e-02 6.27095625e-02 -9.75818932e-02 -1.39975503e-01
      -3.32162455e-02 1.18406668e-01 -1.33059889e-01 3.15890498e-02
      9.97626111e-02 -7.82211870e-02 -7.57067725e-02 -3.62774208e-02
      2.37205401e-01 1.24308228e-01 -1.82494447e-01 -1.66489258e-01
      1.29839569e-01 -1.08904652e-01 -4.66382504e-02 5.20125823e-03
      -1.79247722e-01 -2.19986543e-01 -2.68001258e-01 7.89031237e-02
      3.76245856e-01 1.35977164e-01 -2.52217203e-01 -9.63540189e-03
      -1.72087163e-01 3.28757092e-02 1.15496449e-01 1.77563220e-01
      -7.85977766e-03 4.05160002e-02 -7.50381351e-02 5.93393371e-02
      2.02876151e-01 -8.18026364e-02 -1.46645615e-02 2.55940527e-01
      -4.86352015e-03 1.33824080e-01 -3.74582112e-02 2.92792693e-02
      -6.36711195e-02 4.48470637e-02 -1.23243570e-01 8.91287811e-03
      5.33285644e-03 5.29856002e-03 -3.37624624e-02 1.44062743e-01
      -1.79165483e-01 1.50507852e-01 6.30988553e-02 1.08667063e-02
      7.85788707e-03 -1.01814214e-02 -6.97767884e-02 -1.23765714e-01
      1.14465714e-01 -1.95476815e-01 2.47436762e-01 2.14027867e-01
      1.13947891e-01 1.68230772e-01 1.25574395e-01 6.06734343e-02
      4.09888029e-02 -6.86693713e-02 -2.01810420e-01 3.57290469e-02
      9.98034850e-02 -4.55840193e-02 8.49573836e-02 -2.18888670e-02</_>
    <_>
      -8.90128240e-02 9.25111473e-02 5.45113645e-02 -5.33187538e-02
      -1.37291148e-01 1.85655542e-02 -7.88410455e-02 -8.11461508e-02
      1.15176901e-01 -1.19287886e-01 2.37386033e-01 -3.24990414e-02
      -2.08561063e-01 -5.35569564e-02 -8.88310298e-02 2.10525930e-01
      -2.03916207e-01 -1.70177326e-01 -4.23460864e-02 -4.69093658e-02
      5.63115291e-02 7.48567358e-02 3.79680917e-02 8.09514299e-02
      -1.17804758e-01 -3.58534992e-01 -6.20824322e-02 -8.33562315e-02
      -5.21545820e-02 -9.25126076e-02 -4.65874486e-02 1.25433221e-01
      -1.75902933e-01 -1.09386258e-03 4.72734272e-02 5.05558252e-02
      -5.08531462e-04 -2.14937925e-02 2.18701750e-01 3.66581157e-02
      -1.97093442e-01 8.82803574e-02 7.10292906e-02 2.90678650e-01
      1.97721958e-01 -4.53284895e-03 1.81357842e-02 -1.19927898e-01
      1.13204584e-01 -1.85099155e-01 1.33195519e-03 1.99774981e-01
      4.74991724e-02 3.89285758e-02 -2.18602177e-02 -1.06116988e-01
      -2.55005322e-02 1.13797262e-01 -7.88477957e-02 8.62019788e-03
      4.46304604e-02 -7.31457099e-02 -5.18930629e-02 -1.12955302e-01
      2.07264051e-01 8.25875401e-02 -1.03115365e-01 -2.29351938e-01
      1.19691633e-01 -1.04247347e-01 -1.39754429e-01 6.82774335e-02
      -2.02999711e-01 -1.40104890e-01 -2.05832407e-01 8.62183701e-03
      3.98157656e-01 4.11260538e-02 -1.98967099e-01 9.08700824e-02
      -3.38432491e-02 -5.48795573e-02 5.59874810e-02 1.50969297e-01
      -2.62552239e-02 8.59298185e-03 -5.51970117e-02 8.15788284e-02
      2.41713703e-01 -3.51653025e-02 -2.43703760e-02 2.13364676e-01
      1.19482279e-02 9.25341174e-02 7.15700090e-02 5.09063015e-03
      -4.30918299e-02 6.69004992e-02 -1.84646875e-01 1.13005750e-03
      -3.11335251e-02 -1.64966527e-02 -3.79558988e-02 8.30853879e-02
      -1.29800200e-01 1.47996783e-01 -2.53334772e-02 2.65619215e-02
      -2.08526868e-02 2.29204390e-02 -9.71015990e-02 -1.55556379e-02
      1.44420370e-01 -1.97590917e-01 2.08516255e-01 1.46938622e-01
      8.75552893e-02 9.47960466e-02 1.22151107e-01 6.95591494e-02
      -3.69220600e-03 7.41058495e-03 -2.39411339e-01 -2.20623184e-02
      1.52874753e-01 -6.67294636e-02 7.04847798e-02 -1.40161011e-02</_>
    <_>
      -1.75359249e-01 1.08313479e-01 5.46400994e-02 -6.17229007e-02
      -5.80282547e-02 -3.20549682e-02 -3.36106829e-02 -1.07342646e-01
      1.60982743e-01 -9.35598165e-02 2.16917530e-01 -7.21424222e-02
      -2.62892187e-01 -4.75884303e-02 -1.00931348e-02 1.62886947e-01
      -1.28350824e-01 -1.20593369e-01 -6.84658140e-02 6.20466694e-02
      8.69627371e-02 3.87509540e-02 1.87709257e-02 1.81901408e-03
      -7.16902241e-02 -3.32298011e-01 -5.21428101e-02 -3.25650945e-02
      -1.17500853e-02 -2.31924430e-02 -5.79585843e-02 -2.44396012e-02
      -2.58964926e-01 -7.90234357e-02 2.15494912e-02 1.32867247e-01
      -2.35338043e-02 -4.57498766e-02 1.69758990e-01 3.16216871e-02
      -2.78440922e-01 -2.66995244e-02 5.13062626e-02 2.01810718e-01
      1.47681117e-01 6.60890490e-02 -1.74978133e-02 -1.75889999e-01
      5.53889684e-02 -1.80967048e-01 7.06012547e-02 1.27488986e-01
      7.55845755e-02 3.43161896e-02 3.57835926e-02 -1.99692801e-01
      -1.78440474e-04 1.27298236e-01 -1.17056087e-01 2.84085292e-02
      9.99352783e-02 1.37957465e-03 -2.49967538e-02 -1.10930763e-01
      2.07908943e-01 6.10431284e-02 -1.14412017e-01 -1.54042557e-01
      1.33966774e-01 -9.22018215e-02 -7.75422603e-02 1.03764720e-01
      -1.24627486e-01 -2.35720128e-01 -3.04314286e-01 2.50534639e-02
      4.02100623e-01 1.24958046e-01 -2.22612858e-01 -8.07164423e-03
      -5.01943007e-02 -2.10792162e-02 1.55383319e-01 1.43249959e-01
      2.85791587e-02 5.52563705e-02 -7.72628710e-02 -3.08995247e-02
      2.43012130e-01 -3.15800793e-02 -5.58530092e-02 1.87259495e-01
      -9.08202957e-03 5.23735508e-02 -1.64100714e-02 4.03992739e-03
      -4.50035967e-02 1.98920630e-02 -2.06697524e-01 -9.27938670e-02
      2.27513202e-02 -3.65167744e-02 -3.77278626e-02 1.48235321e-01
      -1.71313748e-01 8.23337287e-02 6.94489330e-02 -1.54844197e-02
      2.04846878e-02 3.34519371e-02 -8.35342184e-02 -6.54435754e-02
      1.12609722e-01 -1.99099243e-01 2.41211385e-01 1.92639172e-01
      4.71173786e-02 1.12905040e-01 1.41817048e-01 1.04643941e-01
      4.65115011e-02 3.58245485e-02 -2.05507725e-01 -6.47653863e-02
      7.87782520e-02 2.60754582e-02 1.30838782e-01 2.40536220e-02</_>
    <_>
      -6.82549626e-02 1.01445325e-01 8.38697404e-02 -5.19913323e-02
      -1.39289135e-02 1.82918161e-02 -8.32757503e-02 -2.54119188e-01
      1.15154751e-01 -8.52451399e-02 2.57948488e-01 -1.73320137e-02
      -1.78774551e-01 -1.39050111e-01 -6.76136017e-02 1.77588940e-01
      -2.19975606e-01 -1.78756639e-01 2.66201682e-02 2.08272003e-02
      2.71988772e-02 -3.54574211e-02 6.16048239e-02 3.94764319e-02
      -1.66605681e-01 -2.89621383e-01 -1.23952128e-01 -8.47004652e-02
      4.63834293e-02 -5.08334115e-02 -7.93326423e-02 2.56311297e-02
      -1.91871077e-01 2.01480836e-02 4.09660451e-02 1.00681409e-01
      5.17732501e-02 -7.98700377e-02 2.06091642e-01 3.98019925e-02
      -2.29747251e-01 1.94981825e-02 3.82071286e-02 2.40066558e-01
      1.61732256e-01 1.01494705e-02 5.81670925e-02 -1.29360184e-01
      1.64423600e-01 -1.41284928e-01 1.24695614e-01 1.10885859e-01
      1.37207359e-01 2.20815875e-02 -5.72968554e-03 -1.81032583e-01
      -9.55969188e-03 1.38638005e-01 -8.91154259e-02 4.42837626e-02
      7.47636855e-02 -3.07135675e-02 3.37657556e-02 1.88319609e-02
      1.83350071e-01 1.45432219e-01 -8.80135819e-02 -1.82151347e-01
      1.53447956e-01 -4.65647466e-02 -8.42615291e-02 5.41903637e-02
      -1.72731727e-01 -1.31237730e-01 -3.04838538e-01 -3.11445445e-04
      4.42502528e-01 4.58575375e-02 -2.38852024e-01 -2.04236060e-03
      -9.49012116e-02 2.79144254e-02 1.54889166e-01 1.26238838e-01
      -4.00012359e-02 2.70036925e-02 -1.28608987e-01 -3.25424932e-02
      2.78490752e-01 -4.67761643e-02 -7.08431602e-02 1.66946292e-01
      -2.67843846e-02 6.75733238e-02 2.15932652e-02 4.83394004e-02
      -5.51861823e-02 8.66184607e-02 -1.25865445e-01 -6.30744696e-02
      1.46056237e-02 4.86081801e-02 7.07857870e-03 1.77067980e-01
      -2.08468109e-01 9.42186415e-02 6.50403500e-02 -1.14738010e-03
      5.66658527e-02 5.16592115e-02 -7.90463686e-02 -8.60283300e-02
      9.27677900e-02 -2.70572275e-01 2.00488806e-01 1.75560370e-01
      3.61628011e-02 9.25015956e-02 1.03150614e-01 8.92958492e-02
      3.16732004e-02 -2.22227052e-02 -1.26643300e-01 -4.51903045e-02
      1.01006232e-01 3.40824248e-03 6.96281791e-02 8.12715106e-03</_>
    <_>
      -9.73120853e-02 1.63657591e-01 -6.68515451e-03 -1.39093716e-02
      -4.62584309e-02 4.97165136e-04 -1.16454437e-01 -1.56772032e-01
      1.47066727e-01 -3.50376181e-02 2.00375512e-01 -3.49751189e-02
      -1.91052899e-01 -3.77056077e-02 -6.08994998e-02 1.56946972e-01
      -3.02197218e-01 -1.28910542e-01 1.12042632e-02 -6.14305697e-02
      9.75552872e-02 -1.59181450e-02 3.74674611e-02 6.51296228e-02
      -1.52510345e-01 -2.86134005e-01 -9.79684442e-02 -7.11219460e-02
      6.36389107e-02 -3.29189338e-02 -4.22866419e-02 -5.50153330e-02
      -2.12268025e-01 -6.90676793e-02 6.33070618e-02 6.31465390e-02
      -2.04662550e-02 -5.94198331e-02 2.08215773e-01 -6.12529665e-02
      -1.28987223e-01 4.82823029e-02 8.59328061e-02 2.21763358e-01
      1.91571370e-01 6.42899722e-02 6.11597672e-04 -1.66571945e-01
      1.35282174e-01 -1.67871505e-01 6.77805692e-02 1.98582456e-01
      6.46990538e-02 1.16382487e-01 -7.36882463e-02 -1.59298912e-01
      -5.84917888e-03 1.62716076e-01 -1.00125551e-01 3.68209481e-02
      7.15756267e-02 -1.27593875e-02 -4.77792788e-03 -2.91981678e-02
      1.46000504e-01 7.86534995e-02 -9.92980152e-02 -2.32605234e-01
      6.77107945e-02 -1.33764863e-01 -1.02374323e-01 3.40104476e-02
      -1.27670407e-01 -2.24140093e-01 -3.10439765e-01 2.14254968e-02
      4.05531585e-01 8.55698436e-02 -1.86731517e-01 4.04241569e-02
      -2.29233690e-02 -3.72319184e-02 1.14001289e-01 9.58957225e-02
      -7.40073025e-02 1.39539689e-03 -1.02700733e-01 3.81747559e-02
      2.57629961e-01 -4.50099930e-02 -6.22053407e-02 1.90938085e-01
      1.74931083e-02 1.09315433e-01 5.93063086e-02 1.17862195e-01
      -7.14706928e-02 6.57133758e-02 -1.90204412e-01 -2.51243450e-02
      3.84939462e-02 2.35133804e-02 -1.60333030e-02 1.26127481e-01
      -1.50884360e-01 1.57205313e-01 4.21672724e-02 -2.35329196e-03
      -2.80904640e-02 2.53427271e-02 -1.43397778e-01 -6.54148906e-02
      1.83551192e-01 -2.00087383e-01 2.15452582e-01 2.21612528e-01
      8.94692540e-02 1.51209712e-01 1.27004117e-01 7.68920034e-02
      2.22073179e-02 2.60939728e-02 -1.80359855e-01 -3.06208767e-02
      6.89726323e-02 -4.33017081e-03 7.58651644e-02 1.01736654e-02</_>
    <_>
      -7.30087981e-02 1.20173872e-01 7.05894232e-02 -7.67945796e-02
      -8.47544670e-02 5.17205149e-02 -1.10912681e-01 -8.77211243e-02
      1.49120122e-01 -8.34648088e-02 2.52923727e-01 -4.76051122e-04
      -2.28854820e-01 1.57278329e-02 -6.80228248e-02 1.50310203e-01
      -2.57801414e-01 -1.28770247e-01 1.58477947e-02 7.27899000e-03
      1.23137362e-01 6.04968071e-02 -5.47600575e-02 1.76982321e-02
      -1.43340856e-01 -3.16546768e-01 -1.00182019e-01 -6.79623261e-02
      -9.36443824e-03 -3.83778736e-02 -6.18428364e-02 1.00652678e-02
      -2.06774831e-01 1.42774321e-02 1.84157863e-02 6.28046021e-02
      -3.75076607e-02 -4.04437631e-02 1.28668696e-01 6.32807389e-02
      -2.02521935e-01 8.62400979e-02 3.73489931e-02 2.24637389e-01
      1.78563446e-01 6.71778694e-02 1.37048401e-03 -1.52220249e-01
      9.00370106e-02 -2.00773388e-01 3.79455462e-02 2.20742524e-01
      8.72318000e-02 9.28921849e-02 -7.49669131e-03 -1.79062530e-01
      -3.48498821e-02 8.59544948e-02 -9.95701924e-02 3.87839638e-02
      6.18765578e-02 -3.17753591e-02 2.33154409e-02 -1.18374489e-01
      1.71543285e-01 7.88677707e-02 -1.27741829e-01 -2.02877060e-01
      8.11640471e-02 -1.06970891e-01 -1.47515312e-01 8.83288383e-02
      -1.78728223e-01 -2.12349415e-01 -2.75556803e-01 4.08196375e-02
      3.78925592e-01 7.86778480e-02 -2.02876404e-01 2.27117501e-02
      -3.15034501e-02 -4.12608534e-02 1.22170992e-01 1.29306540e-01
      1.67733990e-02 5.97607624e-03 -8.87251720e-02 3.01661044e-02
      2.74595827e-01 -8.57990980e-02 -1.64497551e-02 2.06025213e-01
      -2.97936331e-02 1.06988758e-01 -4.14848095e-03 7.98798800e-02
      -5.73654994e-02 5.17148115e-02 -1.57257423e-01 -2.37987824e-02
      -3.53554636e-02 2.11411305e-02 -7.31135905e-02 1.29291818e-01
      -1.16329938e-01 1.18063986e-01 2.70653628e-02 -2.16091480e-02
      -4.81904484e-02 -1.61277149e-02 -1.21954419e-01 -3.84613350e-02
      1.61640182e-01 -2.23325402e-01 2.38554850e-01 1.87274307e-01
      5.73145971e-02 8.87239277e-02 1.09265454e-01 5.63802756e-02
      -3.75804156e-02 -3.23633663e-02 -2.37495556e-01 -4.51555774e-02
      8.65323246e-02 -2.31426172e-02 3.39629948e-02 -4.07736227e-02</_>
    <_>
      -6.22593835e-02 7.66301081e-02 2.47811694e-02 -6.85692877e-02
      -3.60213630e-02 -3.09815276e-02 -9.50064063e-02 -9.66514349e-02
      1.80962428e-01 -8.22645724e-02 2.20212236e-01 -2.60756873e-02
      -2.17642665e-01 -5.01480773e-02 -1.43605292e-01 1.80907831e-01
      -1.95796400e-01 -1.76326558e-01 -2.22977754e-02 6.80422857e-02
      1.22501463e-01 1.02799470e-02 -3.87644134e-02 9.19516198e-03
      -8.32269341e-02 -3.52343976e-01 -1.34977102e-01 -6.73363730e-02
      -2.91723981e-02 -5.96311316e-02 -5.18251918e-02 4.10417505e-02
      -2.05801621e-01 -5.90161607e-02 4.66201603e-02 7.61529058e-02
      -3.93197909e-02 -7.77282491e-02 1.92239285e-01 1.62540860e-02
      -1.80230319e-01 7.16156811e-02 3.03793438e-02 2.38891885e-01
      1.96151495e-01 4.67352606e-02 2.12872177e-02 -1.67242959e-01
      9.80013832e-02 -2.13321954e-01 2.47371364e-02 1.80308729e-01
      7.81531036e-02 1.50650561e-01 2.75694393e-03 -1.29201815e-01
      6.13070652e-02 1.15439959e-01 -1.60956651e-01 3.90017265e-03
      4.15234901e-02 -6.37919381e-02 -3.68250534e-03 -5.97018562e-02
      2.01675043e-01 4.07966375e-02 -1.31339282e-01 -1.52322859e-01
      1.48323506e-01 -1.24050215e-01 -6.17118068e-02 3.27690318e-02
      -1.57800600e-01 -2.17118889e-01 -2.88318396e-01 5.56157082e-02
      4.23503101e-01 1.13038763e-01 -1.91849560e-01 8.45348313e-02
      -2.03264188e-02 -2.10346244e-02 1.09013319e-01 9.01827961e-02
      -2.19796039e-02 1.44071635e-02 -8.78567174e-02 2.92056967e-02
      2.52655268e-01 -3.46096717e-02 -4.53020632e-02 1.72946617e-01
      -2.29678266e-02 1.02288552e-01 6.55437112e-02 7.56268278e-02
      1.52777834e-02 3.47465687e-02 -1.54416919e-01 5.79747185e-02
      1.58184767e-03 -1.46834990e-02 -6.51382580e-02 1.13852859e-01
      -5.79552576e-02 8.99997205e-02 1.50168259e-02 -7.71145709e-03
      -5.19875810e-02 -1.38169033e-02 -1.23060323e-01 -5.24184108e-02
      1.23775735e-01 -2.38369301e-01 2.49927804e-01 1.62208825e-01
      6.32962137e-02 1.16926283e-01 8.22077990e-02 7.49535561e-02
      -2.58885734e-02 -4.63779718e-02 -2.22064406e-01 -5.92769124e-02
      1.06386259e-01 5.64058982e-02 8.74339789e-02 -9.91437864e-03</_>
    <_>
      -4.03350256e-02 1.12086132e-01 1.38936918e-02 -3.91478799e-02
      -4.38965112e-02 1.45447385e-02 -7.46319816e-02 -1.04129411e-01
      1.13298990e-01 -1.04329817e-01 2.48332098e-01 -2.41960287e-02
      -2.18347982e-01 -3.18117402e-02 -8.01308975e-02 1.14332758e-01
      -1.86100960e-01 -1.07944839e-01 -8.11646581e-02 4.22975495e-02
      6.36398196e-02 -3.75679228e-03 -2.22574244e-03 4.21942696e-02
      -2.41837259e-02 -3.37472141e-01 -1.11617163e-01 -9.78709161e-02
      2.05628183e-02 -4.90246490e-02 -2.05094405e-02 -1.18747111e-02
      -1.71644762e-01 -8.11259151e-02 6.76476303e-03 -5.61475307e-02
      2.33790949e-02 -3.75057906e-02 2.05326870e-01 -3.32880095e-02
      -1.81988597e-01 1.45230293e-01 1.89640634e-02 2.12553456e-01
      1.48989052e-01 1.35643676e-01 5.24094887e-03 -1.72723129e-01
      1.62392721e-01 -2.09062159e-01 8.34679455e-02 1.25178218e-01
      6.05352260e-02 3.75771485e-02 1.19815227e-02 -1.85202301e-01
      1.65963173e-03 7.87007734e-02 -1.27529636e-01 2.19520647e-02
      3.41985486e-02 -1.79452207e-02 1.39137376e-02 -9.34982970e-02
      1.89861327e-01 9.95045081e-02 -7.15640709e-02 -2.09966734e-01
      1.19116090e-01 -1.37505084e-01 -7.13013709e-02 3.25193815e-02
      -1.22289605e-01 -1.28911793e-01 -2.78458148e-01 7.24945962e-02
      3.60235810e-01 1.37481004e-01 -1.64634466e-01 8.06912109e-02
      -9.04246643e-02 1.94058940e-02 9.81800854e-02 4.95350547e-02
      -6.81778044e-02 -3.76528651e-02 -7.48640150e-02 -4.36364450e-02
      2.05360308e-01 -1.88275743e-02 -7.23141953e-02 2.05810294e-01
      -3.46466117e-02 9.50583667e-02 6.91959485e-02 2.29224917e-02
      -1.10536233e-01 2.25718208e-02 -1.61394805e-01 2.13729516e-02
      3.58269662e-02 3.95271070e-02 2.97414698e-03 1.30654514e-01
      -1.41171053e-01 9.05993059e-02 -8.66741464e-02 3.01860329e-02
      4.34187613e-02 5.92111573e-02 -1.06509946e-01 -4.67549413e-02
      1.17313676e-01 -2.16042504e-01 2.35664874e-01 9.90893692e-02
      7.77881518e-02 1.06650218e-01 1.65316656e-01 7.16068894e-02
      -3.00260969e-02 3.22089680e-02 -2.64416099e-01 -7.81416446e-02
      1.63733929e-01 2.34064814e-02 8.94457400e-02 2.17275741e-03</_>
    <_>
      -5.70321605e-02 8.72106403e-02 3.29448208e-02 -2.03046352e-02
      -5.33341840e-02 -3.81433144e-02 -2.68780999e-02 -1.11741900e-01
      9.10220444e-02 -7.83886909e-02 2.73139000e-01 -1.13907315e-01
      -2.10630193e-01 -9.13515463e-02 -6.35250658e-02 1.47232309e-01
      -2.30472684e-01 -6.23905361e-02 -6.24253303e-02 -4.33159620e-02
      1.04209535e-01 -3.43527012e-02 4.40165214e-02 4.43816707e-02
      -8.27201605e-02 -3.01247567e-01 -1.00800894e-01 -1.18840739e-01
      6.29313812e-02 -6.71063289e-02 -8.62775594e-02 -2.64539272e-02
      -2.28230938e-01 -1.32419303e-01 3.43063772e-02 -7.54681751e-02
      -1.99802388e-02 -6.87517524e-02 1.97907075e-01 -5.09694517e-02
      -1.68595552e-01 1.03066385e-01 4.62259650e-02 1.95115730e-01
      1.90756395e-01 7.10798651e-02 -5.28908819e-02 -1.14265032e-01
      1.30952090e-01 -1.59901246e-01 5.94998077e-02 1.56257421e-01
      1.42525300e-01 4.76055145e-02 3.22665013e-02 -1.13009915e-01
      -8.92157573e-03 1.12859040e-01 -1.02742679e-01 6.00578170e-03
      7.69021362e-02 -4.01345119e-02 6.47354424e-02 -8.20619687e-02
      1.02256358e-01 2.75488943e-02 -8.16322714e-02 -1.57159328e-01
      7.34258667e-02 -7.51549155e-02 -3.62123130e-03 3.56713235e-02
      -1.29177749e-01 -1.87991068e-01 -2.50890136e-01 5.73891997e-02
      3.62287492e-01 1.34550676e-01 -1.72958761e-01 8.55631474e-03
      -1.02925532e-01 -1.95114687e-02 1.16439410e-01 3.40629518e-02
      -2.48159748e-02 -5.30574210e-02 -6.50183782e-02 2.70153265e-02
      1.40379429e-01 -9.54161733e-02 -5.52363247e-02 1.94155455e-01
      -7.99123645e-02 4.44814116e-02 1.09957401e-02 1.07101910e-02
      -1.35849699e-01 9.24262628e-02 -1.02746606e-01 5.35399504e-02
      1.15133878e-02 -3.80415544e-02 4.08761017e-03 9.30217355e-02
      -1.43805951e-01 4.44508344e-02 -2.42414214e-02 3.20161134e-03
      -3.02398149e-02 5.20790182e-03 -1.30548701e-01 -3.75071866e-03
      7.11161345e-02 -2.33690217e-01 2.59814978e-01 1.60808980e-01
      3.44462879e-02 1.10107452e-01 1.12257466e-01 1.46367215e-02
      1.61016434e-02 -1.15505876e-02 -1.79636464e-01 -8.22876394e-02
      1.41731933e-01 2.22145859e-02 1.04250260e-01 -3.84055078e-02</_>
    <_>
      -6.82032108e-02 1.89068496e-01 7.43428096e-02 -1.04368709e-01
      -6.57876283e-02 9.62788425e-03 -8.28018039e-02 -2.50728969e-02
      9.07499865e-02 3.33643742e-02 2.40616247e-01 1.63221788e-02
      -2.39566848e-01 -5.69968373e-02 -1.40750334e-01 1.23206928e-01
      -1.99877545e-01 -6.39137030e-02 -1.30421951e-01 -7.88805410e-02
      1.09777786e-01 1.07517540e-01 8.05209875e-02 3.34830694e-02
      -1.21952906e-01 -2.40548864e-01 -1.91392042e-02 -8.70353952e-02
      1.24746114e-02 -2.01792061e-01 2.07915027e-02 3.28041427e-02
      -1.39973924e-01 -3.67632583e-02 -2.55149789e-03 3.86501774e-02
      2.62236279e-02 -5.31182140e-02 1.50295064e-01 7.09669665e-02
      -1.36422947e-01 1.01433136e-01 6.27021194e-02 2.95046598e-01
      2.75705308e-01 -7.57577945e-04 -2.47504115e-02 -2.22230237e-02
      6.68521598e-02 -2.51969159e-01 1.03446003e-02 1.59713298e-01
      1.42786443e-01 6.65924922e-02 4.99913245e-02 -1.28850579e-01
      -2.20390819e-02 1.27265692e-01 -1.59994215e-01 8.25982541e-02
      -5.09590423e-03 -1.03931993e-01 1.76533144e-02 -5.54188304e-02
      9.52140242e-02 9.52634588e-02 -1.42177656e-01 -1.16131149e-01
      1.03128076e-01 -1.21331953e-01 -1.02778226e-01 5.52501082e-02
      -1.16121151e-01 -1.09078184e-01 -2.51586616e-01 6.63725939e-03
      3.38721395e-01 1.17385417e-01 -2.46726185e-01 -1.63157731e-02
      -9.19912755e-02 -1.05960192e-02 -4.08217087e-02 4.44039628e-02
      -1.14686549e-01 -1.35417394e-02 -9.81242359e-02 9.21226013e-03
      1.48752958e-01 -8.61519389e-03 -8.29686970e-02 2.62723535e-01
      1.38548333e-02 2.69262567e-02 7.84779042e-02 6.35376200e-02
      -9.49155018e-02 -1.50035135e-02 -1.22559167e-01 6.13878062e-03
      -7.21970871e-02 -1.98292106e-01 -3.86062376e-02 6.91077188e-02
      -1.19831041e-01 9.62106213e-02 1.71833578e-02 -5.50425285e-03
      -5.06738797e-02 8.28416720e-02 -8.67554173e-02 -2.97672264e-02
      2.01116875e-01 -2.09697217e-01 2.33940244e-01 2.56211340e-01
      4.89457101e-02 1.01383477e-01 1.30572930e-01 9.22239125e-02
      8.00704118e-03 2.01615095e-02 -2.63487687e-03 -1.20083220e-01
      -9.80434753e-03 -4.07945141e-02 5.95299378e-02 4.01181169e-02</_>
    <_>
      -1.07571661e-01 1.09968193e-01 2.94100847e-02 3.43192816e-02
      -1.27138361e-01 4.34222780e-02 -4.77491058e-02 -1.13514669e-01
      1.24952108e-01 -4.79759313e-02 2.82548100e-01 -3.03134136e-02
      -2.07651213e-01 -6.76087365e-02 -6.29936159e-02 1.80279702e-01
      -1.48107618e-01 -1.56485483e-01 -2.25421395e-02 -1.21321511e-02
      1.17483497e-01 6.63563758e-02 3.32066882e-03 5.32657653e-03
      -1.33813530e-01 -3.41405332e-01 -5.88030666e-02 -7.25351498e-02
      -1.92924067e-02 -7.34109655e-02 -8.07618536e-03 5.94146363e-02
      -1.87617153e-01 -6.57334179e-02 8.75320062e-02 9.25764665e-02
      -1.69614311e-02 -1.36319501e-02 2.17436895e-01 -4.26020473e-02
      -2.29569182e-01 1.36089548e-01 8.85614678e-02 3.02457720e-01
      1.28127083e-01 3.36319096e-02 1.54065993e-02 -9.82958451e-02
      5.60611412e-02 -1.75873384e-01 9.08460692e-02 1.79077819e-01
      1.49388418e-01 3.73022407e-02 -2.76286341e-02 -1.12593904e-01
      1.13679348e-02 7.88739324e-02 -1.58209354e-01 2.76604132e-03
      1.77110419e-01 -5.64922243e-02 -1.66358650e-02 -3.49768475e-02
      1.42679140e-01 6.33143559e-02 -8.19700584e-02 -2.18469337e-01
      3.26312855e-02 -1.34283841e-01 -1.08259000e-01 6.53895810e-02
      -1.86292887e-01 -2.07677826e-01 -3.12395066e-01 5.18034399e-02
      4.18037117e-01 7.01709613e-02 -2.15907961e-01 6.37892857e-02
      2.58154385e-02 6.06141388e-02 1.38841361e-01 8.71146843e-02
      1.09642651e-02 -8.20834097e-03 -1.25708729e-01 5.52261621e-02
      2.15592161e-01 -5.15627451e-02 -8.86229798e-02 1.87725112e-01
      5.11707589e-02 2.71803793e-03 6.92679286e-02 8.72550309e-02
      2.49566101e-02 2.93083079e-02 -1.29666463e-01 3.97959165e-02
      -3.92102636e-03 1.77101251e-02 -8.79374705e-03 9.67166722e-02
      -1.66504815e-01 1.49440661e-01 -3.76103558e-02 3.43133025e-02
      -1.43033955e-02 1.05163138e-02 -1.06103115e-01 -2.21239328e-02
      1.17787972e-01 -2.47232720e-01 2.04182312e-01 1.50156528e-01
      1.11792730e-02 1.18300013e-01 1.05109178e-01 6.58901557e-02
      4.93124966e-03 2.05084905e-02 -2.29889154e-01 -9.96717215e-02
      7.11661056e-02 -1.33131705e-02 1.11831084e-01 2.78992690e-02</_>
    <_>
      -7.60259181e-02 1.03881963e-01 -1.71510931e-02 -7.38547072e-02
      9.50644910e-03 1.03528891e-03 -1.10656075e-01 -9.67379659e-02
      1.55548170e-01 -8.94618779e-02 2.02695757e-01 -1.72849055e-02
      -1.95831493e-01 -3.21504362e-02 -1.24309529e-02 1.43617749e-01
      -2.94762343e-01 -9.36698020e-02 3.34094241e-02 2.33761426e-02
      5.29968925e-02 -5.65419765e-03 3.29574086e-02 8.07558522e-02
      -9.70050171e-02 -3.04233134e-01 -1.00600168e-01 -1.35511667e-01
      2.42788531e-02 -1.37623800e-02 -1.27035543e-01 2.34792866e-02
      -1.59468547e-01 -3.90763246e-02 5.49505055e-02 8.46937746e-02
      -5.07813804e-02 -3.92107069e-02 1.85748771e-01 1.29980380e-02
      -1.75501451e-01 5.43182977e-02 5.22175878e-02 2.40480691e-01
      1.76460475e-01 6.48657233e-02 -1.64404996e-02 -1.47629410e-01
      1.25260517e-01 -1.99054733e-01 7.43863061e-02 1.93281502e-01
      7.46568367e-02 1.26836032e-01 -6.42993897e-02 -1.49470478e-01
      3.97067517e-02 8.15722644e-02 -1.75915688e-01 5.51742688e-02
      1.17098667e-01 -3.45051587e-02 9.27070156e-04 -2.94488743e-02
      2.28752449e-01 1.52265802e-01 -1.80718377e-01 -2.04456687e-01
      7.54019246e-02 -1.40086994e-01 -1.12704910e-01 5.59328943e-02
      -1.59078732e-01 -2.28774056e-01 -2.60801733e-01 5.43593392e-02
      3.28360528e-01 1.36240140e-01 -1.38945490e-01 2.49330681e-02
      -7.44999200e-02 -7.37081617e-02 1.12740591e-01 1.89896032e-01
      -3.82625088e-02 -8.17680918e-03 -4.19361331e-02 1.68075971e-03
      2.09996268e-01 -2.99160220e-02 -5.64609058e-02 1.95050016e-01
      -8.99608806e-03 1.28584772e-01 7.01405946e-03 1.14808679e-01
      -6.98521957e-02 2.82706134e-02 -2.02651098e-01 -5.95856924e-03
      -2.37157606e-02 -7.71106966e-03 -4.51645739e-02 1.67348832e-01
      -1.27557814e-01 1.41200200e-01 2.07431633e-02 -2.03137696e-02
      2.83804480e-02 3.99119295e-02 -1.06578782e-01 -1.02716751e-01
      9.91724432e-02 -2.29635552e-01 2.20217541e-01 1.92893103e-01
      1.72688618e-01 9.88430157e-02 1.12155922e-01 7.01994970e-02
      1.96020454e-02 -1.70744807e-02 -2.53961325e-01 -2.63960157e-02
      9.91186947e-02 3.66226621e-02 4.02387753e-02 -1.81844495e-02</_>
    <_>
      -5.23900911e-02 7.69153237e-02 2.78749177e-03 -2.82660574e-02
      -5.26909493e-02 -8.12459178e-03 -9.79687870e-02 -1.32570297e-01
      9.38303173e-02 -7.78615549e-02 1.84536591e-01 -8.38951487e-03
      -1.84568197e-01 -8.59216973e-02 -8.18644688e-02 1.48076564e-01
      -2.08863303e-01 -1.68719277e-01 -2.34456975e-02 -3.96538526e-05
      7.46227056e-02 -4.75484990e-02 3.39415707e-02 3.71761695e-02
      -9.62932184e-02 -2.84548432e-01 -1.28357351e-01 -1.20520093e-01
      4.76621687e-02 -4.67577353e-02 -5.11052907e-02 -2.70041935e-02
      -2.07547471e-01 -1.47846136e-02 7.23868143e-03 3.21933962e-02
      2.11034231e-02 -3.81647050e-02 2.07576856e-01 -5.12447208e-03
      -2.01187417e-01 1.14090607e-01 2.98549086e-02 2.21736908e-01
      2.15435982e-01 3.38219963e-02 2.53884681e-02 -1.68762758e-01
      1.19325392e-01 -1.38368130e-01 8.96275342e-02 1.91351399e-01
      1.33915842e-01 8.80329162e-02 -2.82890014e-02 -1.31684050e-01
      2.64364909e-02 5.67971393e-02 -8.91699195e-02 4.25777473e-02
      7.08216727e-02 3.26151997e-02 -3.55167687e-03 -7.75871575e-02
      1.99495807e-01 3.62044387e-02 -1.47986323e-01 -1.89693809e-01
      1.30813330e-01 -1.30238399e-01 -8.59339088e-02 5.34131043e-02
      -1.72727317e-01 -1.74834892e-01 -2.83873945e-01 4.30228040e-02
      4.24326658e-01 9.56092849e-02 -2.41832703e-01 7.28655010e-02
      -1.16163731e-01 -3.80004346e-02 8.96889716e-02 1.31007597e-01
      -1.78460926e-02 1.21314116e-02 -6.96277171e-02 5.66594861e-03
      2.39925429e-01 -7.30919987e-02 -5.81576340e-02 1.66093752e-01
      5.94129972e-03 1.12551376e-01 3.40084173e-02 8.67940187e-02
      -2.48352438e-02 5.15234582e-02 -1.42704293e-01 2.83474084e-02
      -1.84718631e-02 -3.53026837e-02 -5.26479259e-02 8.73937160e-02
      -1.16427079e-01 1.53243050e-01 5.11895455e-02 1.86845548e-02
      -1.84131861e-02 6.23520613e-02 -1.47988617e-01 -5.01927212e-02
      1.49350002e-01 -2.51808554e-01 2.78297544e-01 1.87180519e-01
      8.74242410e-02 7.81161189e-02 1.37885600e-01 1.20692171e-01
      -1.00966329e-02 -3.81560531e-03 -2.02771321e-01 -5.63216880e-02
      7.36212656e-02 -2.15036795e-02 6.33493662e-02 3.98800708e-02</_>
    <_>
      -6.91315681e-02 1.48681790e-01 5.87872937e-02 3.76006477e-02
      -2.24588625e-02 -7.33145420e-03 -8.22927877e-02 -1.70122534e-01
      1.21676281e-01 -6.36704564e-02 1.77348465e-01 8.98019038e-03
      -1.24785595e-01 -1.54402703e-01 1.35400891e-03 1.76280782e-01
      -2.20095083e-01 -1.69899464e-01 -4.61632088e-02 4.89550307e-02
      7.26843774e-02 -3.52370255e-02 9.67952311e-02 -2.09884979e-02
      -1.54061317e-01 -3.81578863e-01 -1.06048957e-01 -9.73869562e-02
      5.53179868e-02 8.52462277e-03 -8.57601464e-02 1.41406143e-02
      -1.86981931e-01 -7.26517439e-02 4.70285974e-02 7.40168914e-02
      -2.37057824e-02 -3.38478312e-02 2.19673410e-01 2.87598893e-02
      -2.45451123e-01 8.42754021e-02 2.20854599e-02 2.42724001e-01
      2.16281414e-01 2.48907562e-02 4.65061814e-02 -6.96174726e-02
      1.22453719e-01 -1.74156293e-01 1.12439677e-01 1.42749593e-01
      1.16827421e-01 8.37914273e-02 2.50828937e-02 -9.79867280e-02
      2.21128203e-02 1.24249890e-01 -1.83854043e-01 5.62739782e-02
      9.81814787e-02 -8.28006864e-02 -4.70994264e-02 -1.43161863e-02
      1.17254347e-01 1.46612957e-01 -4.82000150e-02 -2.15025961e-01
      1.24722160e-01 -1.10343531e-01 -5.37319407e-02 1.82060003e-02
      -1.54358193e-01 -1.98590219e-01 -3.06687355e-01 1.84295215e-02
      3.56583565e-01 1.31282240e-01 -2.04014033e-01 2.56404877e-02
      -1.68096041e-03 2.02864446e-02 1.43541858e-01 1.26033470e-01
      -1.39594516e-02 3.43947709e-02 -5.34207076e-02 -1.93685796e-02
      1.76515475e-01 -3.68419141e-02 -8.13437775e-02 2.27515429e-01
      -3.75953224e-03 5.81962951e-02 5.47131561e-02 -3.64248734e-03
      1.59170739e-02 6.26541898e-02 -1.77100152e-01 -4.38026572e-03
      2.07527131e-02 -3.01939864e-02 6.85588317e-03 7.61869103e-02
      -1.37483552e-01 8.69114250e-02 2.05130465e-02 6.93710893e-02
      4.91763167e-02 3.01122423e-02 -1.44517258e-01 -9.21548679e-02
      1.17918670e-01 -2.26833895e-01 2.35057190e-01 2.40953460e-01
      1.55132972e-02 9.15468708e-02 1.31233484e-01 7.39095062e-02
      4.96189073e-02 1.90572347e-02 -1.87850386e-01 -3.09728365e-02
      1.00218311e-01 8.33967142e-03 2.52136961e-02 3.69629711e-02</_>
    <_>
      -7.44948089e-02 1.25999257e-01 8.36986378e-02 -5.78714609e-02
      -7.61623168e-03 2.15844698e-02 -7.96967000e-02 -1.13592573e-01
      1.48985192e-01 -4.73192446e-02 2.74639517e-01 -4.42350237e-03
      -2.64582455e-01 -8.76850188e-02 -8.85627717e-02 1.75500065e-01
      -2.36211374e-01 -1.64115801e-01 -1.04846954e-02 3.30546461e-02
      1.08556941e-01 2.79596988e-02 -1.14723183e-02 -6.32394059e-03
      -8.94171447e-02 -3.24523091e-01 -9.88077447e-02 -9.66586992e-02
      3.23043056e-02 -4.71444093e-02 -4.80429903e-02 -2.43134983e-02
      -2.00414434e-01 -2.30012573e-02 3.92340682e-02 3.51088420e-02
      2.73051346e-03 -4.68256250e-02 1.86697945e-01 -1.80392433e-03
      -2.03465357e-01 7.61184022e-02 5.48793226e-02 1.92571387e-01
      1.85912713e-01 7.93614089e-02 -7.81161897e-03 -1.95063829e-01
      6.69803619e-02 -1.58125833e-01 6.76576868e-02 2.01634556e-01
      1.06452689e-01 9.06466842e-02 -5.88091649e-03 -1.78177491e-01
      -1.73850618e-02 7.69113526e-02 -1.35879740e-01 1.92722194e-02
      5.20277508e-02 -2.34029032e-02 -1.69171505e-02 -6.91156760e-02
      1.65560588e-01 4.09514233e-02 -1.33627415e-01 -2.11288154e-01
      1.41501606e-01 -1.15232237e-01 -1.17639072e-01 5.96952662e-02
      -1.59344748e-01 -1.70208499e-01 -2.78545797e-01 3.21616605e-02
      3.77320558e-01 5.05947359e-02 -2.35170424e-01 6.91716895e-02
      -3.89541984e-02 -5.22170737e-02 9.58997160e-02 1.23855688e-01
      -1.99410245e-02 1.57877989e-03 -7.72477239e-02 -1.18006235e-02
      2.27657124e-01 -5.03174812e-02 -2.22941022e-02 1.88323990e-01
      -3.87626924e-02 1.11302353e-01 3.05954963e-02 6.22444823e-02
      -1.64336078e-02 6.27419874e-02 -1.70198157e-01 -2.34602932e-02
      2.56513245e-03 2.69803386e-02 -4.66627367e-02 1.21565290e-01
      -1.07238039e-01 8.71173143e-02 4.83101234e-02 -6.36250805e-03
      5.59701864e-03 4.60919086e-03 -1.03872105e-01 -5.80202527e-02
      1.59251183e-01 -2.21580878e-01 2.91280717e-01 1.78037122e-01
      8.15051422e-02 6.17838986e-02 1.38050377e-01 7.96975419e-02
      1.00217983e-02 -2.45606303e-02 -2.51531720e-01 -4.79508750e-02
      9.67882574e-02 -4.12963517e-02 7.74952620e-02 -7.58244051e-03</_>
    <_>
      -1.00336775e-01 1.43215880e-01 6.21119067e-02 -1.23236381e-01
      -1.14728123e-01 5.54269068e-02 -6.66420534e-02 -1.09555811e-01
      1.76068649e-01 -5.53125367e-02 2.46349096e-01 5.35669401e-02
      -1.57348275e-01 -4.90111485e-02 7.88783282e-03 1.38911277e-01
      -1.54344305e-01 -1.36487141e-01 1.15932999e-02 -1.57460663e-03
      7.19379857e-02 8.55225399e-02 3.78316082e-03 5.24166077e-02
      -1.97011262e-01 -2.88942963e-01 -9.12547857e-02 2.36360021e-02
      -3.48375998e-02 -5.95113114e-02 -2.83897128e-02 9.14692581e-02
      -2.39921659e-01 -3.18236649e-02 3.55607234e-02 8.15530717e-02
      -6.16768636e-02 -2.45168852e-03 1.91686064e-01 3.91507447e-02
      -2.10008696e-01 5.94744459e-02 7.26955160e-02 2.74468809e-01
      1.69598132e-01 3.52966860e-02 1.77502520e-02 -6.39691278e-02
      4.87087779e-02 -2.29963943e-01 1.03107519e-01 1.42841458e-01
      8.25791955e-02 2.31320970e-02 -5.00066541e-02 -1.34275556e-01
      -5.09633459e-02 1.17191568e-01 -1.52141348e-01 7.10488111e-02
      7.89835900e-02 -1.41853601e-01 -4.19825912e-02 -8.46993029e-02
      1.96815953e-01 1.46858826e-01 -9.50940028e-02 -2.40250528e-01
      7.44165927e-02 -9.54120308e-02 -1.54571205e-01 1.06770016e-01
      -1.44225314e-01 -1.87574685e-01 -3.52209419e-01 6.09070733e-02
      3.49169433e-01 1.00324817e-01 -2.08338886e-01 1.81374289e-02
      -1.34182069e-02 1.02817006e-02 8.05126503e-02 8.57745185e-02
      -4.09523770e-02 8.89534038e-03 -9.66700166e-02 7.36516044e-02
      2.94544816e-01 -1.44578731e-02 -1.01719111e-01 2.53972083e-01
      4.91033383e-02 8.40560421e-02 1.39541458e-04 8.65253955e-02
      3.93210445e-03 2.41466984e-02 -1.76332459e-01 5.77296596e-03
      2.56583150e-02 4.13129479e-02 1.26690674e-03 2.31829122e-01
      -1.89786121e-01 2.00501159e-01 -3.60902539e-03 -1.54329482e-02
      -1.86778903e-02 2.71661356e-02 -1.32649869e-01 -8.01876411e-02
      1.16226017e-01 -2.31676936e-01 1.75868079e-01 1.64802626e-01
      5.74041270e-02 1.02493763e-01 1.18853889e-01 4.03432250e-02
      2.29276679e-02 3.80757824e-03 -1.87040076e-01 -3.57677974e-02
      1.40928492e-01 -5.70534207e-02 1.47335023e-01 6.56409189e-02</_>
    <_>
      -1.67861283e-01 1.00533061e-01 2.11301856e-02 -5.99689456e-03
      -3.59816179e-02 3.78448004e-03 -5.98691031e-02 -1.23001695e-01
      1.48499086e-01 -6.23903200e-02 2.75792867e-01 -3.13510336e-02
      -2.25068212e-01 -1.19248874e-01 -7.00027570e-02 1.64784700e-01
      -2.04257488e-01 -1.32215023e-01 -2.52719522e-02 -4.64344397e-04
      1.04337491e-01 -5.04643321e-02 4.58537079e-02 1.75590646e-02
      -1.13889806e-01 -3.41909260e-01 -9.77550521e-02 -5.73810190e-02
      -2.53854115e-02 -1.00551015e-02 -4.94512990e-02 -3.62435505e-02
      -1.98175922e-01 -8.51032138e-02 3.06300148e-02 6.89464658e-02
      -1.41855516e-02 2.88535887e-03 2.04540834e-01 -2.69242227e-02
      -2.18513250e-01 4.74211685e-02 6.20665923e-02 2.55284846e-01
      2.20719650e-01 3.17855999e-02 -1.52765736e-02 -1.69154182e-01
      1.20581165e-01 -1.39941111e-01 4.17810492e-02 2.00074539e-01
      1.45994723e-01 7.08494112e-02 -6.82136789e-03 -7.71859288e-02
      -2.12794449e-02 1.43502444e-01 -4.91505489e-02 2.66208895e-03
      6.21758886e-02 -3.40310782e-02 7.90927466e-03 -9.37394500e-02
      1.68536633e-01 3.87880281e-02 -1.60597831e-01 -2.03589022e-01
      8.07365552e-02 -8.52396265e-02 -9.55490842e-02 5.91491982e-02
      -1.62764594e-01 -2.42708832e-01 -3.37017566e-01 4.09311466e-02
      4.09853727e-01 6.20113499e-02 -2.43634418e-01 3.37655544e-02
      -7.96499774e-02 -2.66220123e-02 1.19448207e-01 1.81953609e-01
      6.26487657e-04 3.16882432e-02 -9.64067802e-02 -3.77728418e-02
      2.05741003e-01 -6.96323812e-02 -6.08492121e-02 2.09562272e-01
      -2.80665234e-03 1.19247563e-01 4.74368110e-02 1.07787475e-01
      -5.89786805e-02 8.03893954e-02 -1.74336419e-01 -1.17902998e-02
      2.70206481e-03 -1.58579424e-02 9.25783347e-03 6.46778867e-02
      -1.15391031e-01 1.17637083e-01 4.42403965e-02 9.61939916e-02
      1.85437407e-02 1.23578096e-02 -9.24712941e-02 -7.62153864e-02
      1.04406774e-01 -2.49409661e-01 2.04427034e-01 1.81526065e-01
      4.40911427e-02 1.23316787e-01 1.72979921e-01 9.17010456e-02
      6.48013689e-03 4.72770594e-02 -1.68650880e-01 -8.41838028e-03
      4.65945639e-02 6.68506604e-03 8.61002877e-02 6.69537112e-03</_>
    <_>
      -1.00718863e-01 1.74475998e-01 5.73194027e-02 -4.78540771e-02
      -4.77869250e-02 2.51756422e-02 -1.15468889e-01 -1.18915424e-01
      1.06544957e-01 -8.27471167e-02 2.49575183e-01 7.61875138e-03
      -2.01709658e-01 -6.57925680e-02 -8.02167058e-02 1.87973648e-01
      -2.75161564e-01 -1.06222145e-01 -3.96875590e-02 -1.79051571e-02
      6.62278011e-02 1.25293934e-03 4.20485549e-02 3.19604725e-02
      -9.20655429e-02 -2.76785314e-01 -7.08248988e-02 -8.55169296e-02
      3.01528238e-02 -6.37269691e-02 -7.40288794e-02 -6.93024173e-02
      -1.80975109e-01 4.02510166e-04 -6.91105612e-03 3.44736315e-03
      -2.24354453e-02 -2.90426966e-02 2.03082025e-01 -2.14127079e-03
      -1.45544797e-01 7.46162757e-02 4.51032519e-02 1.99189886e-01
      2.60059953e-01 7.04701394e-02 1.40957246e-02 -1.66914389e-01
      1.20141082e-01 -1.74093768e-01 3.01143378e-02 1.91615433e-01
      1.00183815e-01 9.00631920e-02 -2.68915221e-02 -1.77034050e-01
      -3.07181478e-02 8.49999487e-02 -5.44307902e-02 2.93195024e-02
      4.53682877e-02 1.20185129e-03 -4.24737111e-03 -6.61920980e-02
      2.13640332e-01 5.90095036e-02 -1.58562154e-01 -1.86390862e-01
      1.02404356e-01 -1.02191530e-01 -1.04000375e-01 2.96032261e-02
      -1.58657774e-01 -1.93189338e-01 -2.70858288e-01 4.40780185e-02
      3.64542127e-01 1.07341342e-01 -2.14673743e-01 2.48737894e-02
      -6.55520409e-02 -4.73721698e-02 7.14703500e-02 1.42281234e-01
      -7.44738504e-02 -2.34181024e-02 -6.14915676e-02 3.72830220e-03
      2.00520009e-01 -6.14191294e-02 -3.47744301e-02 1.98306903e-01
      -1.11110304e-02 1.13292255e-01 3.26040108e-03 6.01578467e-02
      -6.95280358e-02 7.92100206e-02 -1.32409900e-01 8.05813354e-03
      -1.01689789e-02 -2.75098626e-02 -8.27433169e-03 1.10576183e-01
      -1.05114967e-01 1.30512550e-01 -1.78799033e-03 3.46875116e-02
      -2.08566822e-02 4.85096984e-02 -1.28573835e-01 -4.60626371e-02
      1.54109150e-01 -1.91787764e-01 2.60395437e-01 2.11815849e-01
      6.24626763e-02 9.82145891e-02 1.72198251e-01 1.33098722e-01
      3.89428064e-03 6.45558760e-02 -1.76356301e-01 -3.63185592e-02
      7.53668249e-02 -4.82992195e-02 9.96207520e-02 1.50918793e-02</_></support_vectors>
  <decision_functions>
    <_>
      <sv_count>32</sv_count>
      <rho>-2.4033862555834218e+00</rho>
      <alpha>
        4.2735973187548382e-01 5.9625503392986490e+00
        1.1415949630343525e-01 6.2932896214294205e+00
        1.2461641569766961e+00 5.7843068189339633e+00
        2.1210721294202619e+00 5.9567162851688877e+00
        2.1773178148439896e+00 6.6808175653327231e+00
        1.7972588070004176e+00 2.9501943559188852e+00
        1.2500000000000000e+01 5.8019319931870683e+00
        3.7192059627095135e+00 3.0500102866249739e+00
        2.4095881586448384e+00 1.4576868749459373e-01
        4.3261954213669851e+00 -4.1837685384181897e+00
        -1.9200140645973012e+00 -4.6688202417686862e+00
        -4.0470345415536242e+00 -3.5001408501114213e+00
        -6.8257291192969261e-01 -1.2500000000000000e+01
        -1.3539739272473432e+00 -2.5677237270559385e+00
        -8.7393495175097087e+00 -4.3937914282224835e+00
        -1.2406717884116413e+01 -1.2500000000000000e+01</alpha>
      <index>
        21 15 17 16 23 22 29 27 24 4 3 2 1 0 13 7 11 8 10 28 25 26 14 12
        31 30 6 19 20 18 9 5</index></_></decision_functions></opencv_ml_svm>
</opencv_storage>
